{
    "Layer_0": {
        "weights": [
            [
                0.0,
                0.0,
                0.0
            ],
            [
                0.0,
                0.0,
                0.0
            ],
            [
                0.0,
                0.0,
                0.0
            ]
        ],
        "biases": [
            0.0,
            0.0,
            0.0
        ],
        "previousLayer_size": 3,
        "layer_size": 3,
        "activation_func": "leaky_relu",
        "layer_type": "input"
    },
    "Layer_1": {
        "weights": [
            [
                0.043553932062517835,
                0.3121446124434746,
                0.05901681479433832
            ],
            [
                -0.1633399504592916,
                0.39374601820649646,
                0.11381102789934834
            ],
            [
                -0.09023477555118493,
                0.41008778840587923,
                -0.10859187491449368
            ],
            [
                -0.12166939221221963,
                0.3421801817680693,
                0.13744659000321355
            ],
            [
                0.03623700226554591,
                -0.0038667325627530463,
                -0.0033855205160582247
            ],
            [
                -0.006954892796636149,
                0.0030265441481408533,
                -0.017946149544231002
            ],
            [
                -0.002166881963722214,
                -0.020006496069679768,
                -0.008750147667021528
            ],
            [
                -0.04629309266172609,
                0.019086242367560537,
                0.3841441926219121
            ],
            [
                -0.16028328241591056,
                0.4269044668419989,
                0.10468835022991853
            ],
            [
                -0.09666113633400542,
                0.37877554565136196,
                -0.05083690305721747
            ]
        ],
        "biases": [
            -0.01553420617263438,
            0.008008584395132771,
            0.00910977677266029,
            0.007313845385701783,
            7.481951617876197e-06,
            -6.820799861121535e-07,
            -3.8174546149234076e-06,
            -0.000973137460807312,
            0.008333332535069207,
            0.008725816168586453
        ],
        "previousLayer_size": 3,
        "layer_size": 10,
        "activation_func": "leaky_relu",
        "layer_type": "hidden"
    },
    "Layer_2": {
        "weights": [
            [
                -0.12251521166473844,
                0.09358677394067334,
                0.03253511283076072,
                0.08650516384150159,
                0.0010033078556970446,
                0.006399869870804608,
                0.014838137788794161,
                0.16007984568591782,
                0.07455580262703228,
                0.053432940049561464
            ],
            [
                0.009206737752930938,
                -0.011914844555082542,
                0.001544926810330864,
                -0.014268087326039916,
                0.007517273445621042,
                -0.006618493912162236,
                -0.013311542147330517,
                0.011761908890748917,
                -0.015748073142035926,
                -0.012282621167852448
            ],
            [
                -0.12652772793202882,
                0.0791717922625719,
                0.04523960445326799,
                0.11281580170445266,
                -0.011161931346290746,
                0.00744800589993571,
                0.0067068125192247426,
                0.16724273884477542,
                0.0555353187085017,
                0.05376602661496609
            ],
            [
                0.0945136163146943,
                -0.07493650491853776,
                -0.0568294476939319,
                -0.02196469047932785,
                0.008931538390113987,
                0.004628319089953138,
                0.010758190551252052,
                0.020248988513344553,
                -0.07239829976778266,
                -0.06059357872299107
            ],
            [
                -0.008033348916707829,
                0.0001451594724088409,
                0.007229430434668249,
                0.0018074385738164709,
                -0.005783893064165959,
                -0.014397315617152677,
                -0.006306223505921558,
                -0.011601658757036153,
                0.00768448929169217,
                -0.006054522225983108
            ],
            [
                -0.006093078366166895,
                0.07543164156926303,
                0.06944328425105455,
                0.06712590664921368,
                -0.004818287104125713,
                -0.006827306478506601,
                -0.007493645291144091,
                0.09682444924278157,
                0.06691822304914737,
                0.061880400766930695
            ],
            [
                0.3370162020146816,
                -0.15623969279005676,
                -0.19945549590336337,
                -0.06779941289116734,
                0.009474042501857382,
                0.001897821738579722,
                0.006887290736828914,
                0.02352871822771108,
                -0.1591649098928535,
                -0.1601581332479903
            ],
            [
                -0.05297522118166993,
                0.1456165638252144,
                0.16623629257446876,
                0.1708897003214004,
                -0.0016149941073140865,
                0.007434906959442938,
                0.0009685820367561184,
                0.2160513652569588,
                0.14344576578087911,
                0.17074782286304188
            ],
            [
                0.20959643532409164,
                -0.08729339111165078,
                -0.12796931418241944,
                -0.03293852530471208,
                0.020253989793592126,
                0.0001746331660276219,
                0.002999562955098204,
                0.01068017264275269,
                -0.10071578235687065,
                -0.08492965864091394
            ],
            [
                -0.015494038182922311,
                0.049830055555493385,
                0.04668486711649824,
                0.05086703278183789,
                0.009486976940630528,
                -0.01343715628810137,
                -0.002538020073080975,
                0.06350223684770712,
                0.03824306029657755,
                0.06916428625114485
            ],
            [
                0.07829477339091041,
                -0.042472236320954225,
                -0.051423208571282845,
                -0.011168902657854494,
                -0.005097940601936361,
                0.00498526358097334,
                -0.002997246309141031,
                0.0033418078028438123,
                -0.031889454985656415,
                -0.03866226658538871
            ],
            [
                -0.009362282714427276,
                0.008785023196383935,
                -0.027210500650669007,
                0.009199937928265045,
                -0.007279158205820212,
                -0.01027506197884909,
                -0.0009914375922700281,
                -0.014830958221949565,
                -0.008415871838019664,
                0.013651081095593194
            ],
            [
                -0.07632427330002683,
                0.05876956404208812,
                0.02737814194302265,
                0.058520896920286385,
                0.005115595407258865,
                -0.0008559720460644915,
                0.0065466607590836745,
                0.09657751074659647,
                0.037535886116795154,
                0.03469614877970155
            ],
            [
                -0.3302133910097772,
                0.1744140135738198,
                0.1001012342730068,
                0.2388700058016863,
                -0.043619240972627704,
                -0.0019826088116088377,
                -0.010436996881426542,
                0.4125053369782589,
                0.13990519359296044,
                0.1366149640751223
            ],
            [
                0.0018874433317775236,
                -0.0043425755830696485,
                -0.002775297116413033,
                -0.01090718903368053,
                0.014962456691960389,
                0.007358088518330743,
                -0.002068363938953589,
                0.011347293377965799,
                0.012458027036188639,
                -0.0073567591688559735
            ]
        ],
        "biases": [
            -0.000551277400493744,
            -0.00016391731393022898,
            0.0032285860704349373,
            -0.009096714714803885,
            -0.0006221530957877671,
            0.005826525736179682,
            -0.025414611165779793,
            0.013094409437371364,
            -0.015401337090889,
            0.0040684022518113145,
            -0.005558991268687457,
            -0.00010573758235621564,
            0.0013741391080146269,
            0.005848940357178014,
            -0.0005350409556771729
        ],
        "previousLayer_size": 10,
        "layer_size": 15,
        "activation_func": "leaky_relu",
        "layer_type": "hidden"
    },
    "Layer_3": {
        "weights": [
            [
                -0.006348557602914855,
                0.013668952084688372,
                -0.009533483862688985,
                0.11500420058070829,
                -0.007327802963315676,
                -0.020362809530077436,
                0.31575785073320894,
                -0.024845577393523208,
                0.1991384304144398,
                -0.015070612096691006,
                0.07091623694188931,
                -0.007995169114127183,
                -0.01713119270512461,
                -0.04357566848342355,
                0.011804310183792379
            ],
            [
                -0.00882125569049155,
                0.012032633240140108,
                -0.003296978918325017,
                0.000730733006206476,
                0.0030371510356242363,
                0.00614181942960081,
                -0.002153664766039803,
                0.0008328244587560631,
                -0.010103630607354612,
                0.0031421733781832844,
                0.0002556768600411609,
                0.013638016084728246,
                0.0023500394531536946,
                0.0300640709565023,
                0.017559519175509766
            ],
            [
                0.021483550661621754,
                0.008414716414994562,
                0.023831776499683835,
                0.022208665429540222,
                -0.009456972380470973,
                0.004524426293345893,
                -0.010142467399466464,
                0.029220676741965674,
                0.00814928799074633,
                0.023197260643376908,
                -0.003439506996089839,
                0.0037835456586466205,
                0.020650439155874174,
                0.054486194039542926,
                0.006851670792671877
            ],
            [
                -0.0065079306739277845,
                0.002538715805459944,
                0.0013408323384631324,
                0.0008753398281081867,
                -0.00883337706041098,
                0.0009485433317932995,
                0.003752452195561573,
                -0.01480749211026045,
                -0.0033236456626117373,
                0.031209572547957698,
                -0.01561168662650265,
                0.004117799845936217,
                0.013544519574291775,
                -0.008742760612036205,
                -0.015201273753482033
            ],
            [
                -0.021989985913239404,
                0.015848803229920567,
                -0.005808428240176777,
                0.09963446856404173,
                0.006043041766437368,
                -0.0066596835844982515,
                0.31189998422695797,
                -0.0063056779860437995,
                0.19057365331280313,
                0.005938181148271647,
                0.07379985556011007,
                -0.002157800157761302,
                -0.005814716188558043,
                -0.056584489857545814,
                0.0017601451966240927
            ],
            [
                0.0020251289844228997,
                -0.009174195191896172,
                0.005053687917764463,
                0.004349347517990436,
                0.0007353878792436324,
                -0.01297039934055818,
                -0.006038773159842204,
                0.019473067976921242,
                0.002090627222514031,
                -0.00020554139407617518,
                -0.007769110700540351,
                0.012654760575755273,
                0.001319093793553644,
                -0.010934320754190924,
                -0.016991593332761422
            ],
            [
                0.19144520219117128,
                -0.0027307538650412563,
                0.20120013504023987,
                -0.0008984742088056184,
                -0.006246439705893984,
                0.13012090647610705,
                -0.010144444371087946,
                0.2979795129412074,
                0.0012112758278546602,
                0.09439513408038909,
                -0.0006721356916008997,
                -0.00552366089485081,
                0.1154869578525455,
                0.49259454886548126,
                0.0005238507642085207
            ],
            [
                0.06325250715922677,
                0.00254539292523929,
                0.08539531615203128,
                -0.006277591698425829,
                -0.016519356248736915,
                0.04809284094360775,
                -0.013620436866941924,
                0.11281514826363903,
                0.009455430370868165,
                0.032246363456264186,
                0.009543695923420031,
                0.007422736542841968,
                0.03760486258733125,
                0.1863885987869942,
                -0.009645007395621779
            ],
            [
                -0.004234783562478488,
                -0.007737048066973918,
                0.003029635367574527,
                0.019174739032920707,
                -0.00823434038421682,
                -0.006596150551190788,
                -0.005140881105475545,
                -0.005650567550138572,
                0.0016968033986492343,
                -0.0024413753628079217,
                -0.008760892700385254,
                -0.005873594035141851,
                0.014023501661408599,
                -0.014150633536967265,
                -0.018299283371978264
            ],
            [
                0.014462747759379795,
                -0.011958111708402783,
                -0.01566284829250511,
                0.01830666956413432,
                -0.012484468603331236,
                -0.007222010580525002,
                0.073394675998369,
                -0.009771871124481368,
                0.04691479543511736,
                0.022692625124586953,
                0.044005585725827016,
                0.009628280289055578,
                0.003276466146168571,
                -0.022184552977961534,
                -0.004459436072325199
            ]
        ],
        "biases": [
            -0.019040951119415717,
            -0.004920974924928332,
            -0.0006502671080074961,
            -0.005009406249491798,
            -0.016548898690386952,
            -0.0033839854622515616,
            0.11831305456410103,
            0.07502330002476672,
            -0.005769626750150323,
            -0.006788794260479549
        ],
        "previousLayer_size": 15,
        "layer_size": 10,
        "activation_func": "leaky_relu",
        "layer_type": "hidden"
    },
    "Layer_4": {
        "weights": [
            [
                0.29116680115630306,
                -0.00957951379362241,
                -0.04249371356932428,
                -0.01144315939026916,
                0.26273817075603095,
                0.011496197216322186,
                -0.46032295054514966,
                -0.1793536731141519,
                -0.01563638809128647,
                0.06361218700663751
            ],
            [
                -0.26891223139010223,
                0.018067781748094112,
                0.05465258563035656,
                0.006964972272896298,
                -0.2840672055785886,
                -0.01343791108252622,
                0.46168128295506594,
                0.1724527044695836,
                0.0014811458450231447,
                -0.07248078976514351
            ]
        ],
        "biases": [
            -0.6658455872333255,
            0.6697713325418643
        ],
        "previousLayer_size": 10,
        "layer_size": 2,
        "activation_func": "sigmoid",
        "layer_type": "output"
    }
}